<?xml version="1.0"?>
<opencv_storage>
<cascade>
  <stageType>BOOST</stageType>
  <featureType>HAAR</featureType>
  <height>30</height>
  <width>30</width>
  <stageParams>
    <boostType>GAB</boostType>
    <minHitRate>9.9989998340606689e-01</minHitRate>
    <maxFalseAlarm>2.5000000000000000e-01</maxFalseAlarm>
    <weightTrimRate>9.4999999999999996e-01</weightTrimRate>
    <maxDepth>1</maxDepth>
    <maxWeakCount>100</maxWeakCount></stageParams>
  <featureParams>
    <maxCatCount>0</maxCatCount>
    <featSize>1</featSize>
    <mode>BASIC</mode></featureParams>
  <stageNum>12</stageNum>
  <stages>
    <!-- stage 0 -->
    <_>
      <maxWeakCount>4</maxWeakCount>
      <stageThreshold>-3.2407364249229431e-01</stageThreshold>
      <weakClassifiers>
        <_>
          <internalNodes>
            0 -1 39 -6.7377589643001556e-02</internalNodes>
          <leafValues>
            -9.6363633871078491e-01 7.9354840517044067e-01</leafValues></_>
        <_>
          <internalNodes>
            0 -1 35 -8.4469607099890709e-03</internalNodes>
          <leafValues>
            -6.3923007249832153e-01 8.9525586366653442e-01</leafValues></_>
        <_>
          <internalNodes>
            0 -1 21 -1.4255763031542301e-02</internalNodes>
          <leafValues>
            7.4632799625396729e-01 -7.5132930278778076e-01</leafValues></_>
        <_>
          <internalNodes>
            0 -1 34 -6.6059328615665436e-02</internalNodes>
          <leafValues>
            -8.1222850084304810e-01 5.3246474266052246e-01</leafValues></_></weakClassifiers></_>
    <!-- stage 1 -->
    <_>
      <maxWeakCount>4</maxWeakCount>
      <stageThreshold>2.2196440398693085e-01</stageThreshold>
      <weakClassifiers>
        <_>
          <internalNodes>
            0 -1 19 -4.0359877049922943e-02</internalNodes>
          <leafValues>
            6.9696968793869019e-01 -1.</leafValues></_>
        <_>
          <internalNodes>
            0 -1 24 -7.2192987427115440e-03</internalNodes>
          <leafValues>
            9.4722300767898560e-01 -6.1739987134933472e-01</leafValues></_>
        <_>
          <internalNodes>
            0 -1 67 -1.3773140963166952e-03</internalNodes>
          <leafValues>
            9.6481084823608398e-01 -4.0026989579200745e-01</leafValues></_>
        <_>
          <internalNodes>
            0 -1 41 -3.0161783099174500e-02</internalNodes>
          <leafValues>
            -8.2241624593734741e-01 5.8103072643280029e-01</leafValues></_></weakClassifiers></_>
    <!-- stage 2 -->
    <_>
      <maxWeakCount>8</maxWeakCount>
      <stageThreshold>9.3031816184520721e-02</stageThreshold>
      <weakClassifiers>
        <_>
          <internalNodes>
            0 -1 16 -1.5233816578984261e-02</internalNodes>
          <leafValues>
            -6.1290323734283447e-01 7.2972971200942993e-01</leafValues></_>
        <_>
          <internalNodes>
            0 -1 50 -1.7618250101804733e-02</internalNodes>
          <leafValues>
            7.9311889410018921e-01 -4.4606491923332214e-01</leafValues></_>
        <_>
          <internalNodes>
            0 -1 51 -2.0118143409490585e-02</internalNodes>
          <leafValues>
            8.5744315385818481e-01 -3.7557080388069153e-01</leafValues></_>
        <_>
          <internalNodes>
            0 -1 38 5.7443231344223022e-04</internalNodes>
          <leafValues>
            4.3601718544960022e-01 -7.9734712839126587e-01</leafValues></_>
        <_>
          <internalNodes>
            0 -1 6 -1.1749608442187309e-02</internalNodes>
          <leafValues>
            -5.3245937824249268e-01 6.8165075778961182e-01</leafValues></_>
        <_>
          <internalNodes>
            0 -1 32 -5.8691692538559437e-04</internalNodes>
          <leafValues>
            5.3808289766311646e-01 -7.1315538883209229e-01</leafValues></_>
        <_>
          <internalNodes>
            0 -1 49 1.9028791575692594e-04</internalNodes>
          <leafValues>
            3.7251904606819153e-01 -8.4515404701232910e-01</leafValues></_>
        <_>
          <internalNodes>
            0 -1 61 8.3139946218580008e-04</internalNodes>
          <leafValues>
            -4.8925563693046570e-01 7.3163527250289917e-01</leafValues></_></weakClassifiers></_>
    <!-- stage 3 -->
    <_>
      <maxWeakCount>4</maxWeakCount>
      <stageThreshold>-2.4246917665004730e-01</stageThreshold>
      <weakClassifiers>
        <_>
          <internalNodes>
            0 -1 25 -4.1384574025869370e-02</internalNodes>
          <leafValues>
            6.4497041702270508e-01 -9.5121949911117554e-01</leafValues></_>
        <_>
          <internalNodes>
            0 -1 4 1.7142184078693390e-02</internalNodes>
          <leafValues>
            -5.0396680831909180e-01 8.5227572917938232e-01</leafValues></_>
        <_>
          <internalNodes>
            0 -1 46 -1.2098532170057297e-03</internalNodes>
          <leafValues>
            -8.1194782257080078e-01 5.2653062343597412e-01</leafValues></_>
        <_>
          <internalNodes>
            0 -1 22 -4.3124556541442871e-03</internalNodes>
          <leafValues>
            4.2847499251365662e-01 -8.1398904323577881e-01</leafValues></_></weakClassifiers></_>
    <!-- stage 4 -->
    <_>
      <maxWeakCount>6</maxWeakCount>
      <stageThreshold>-8.6123818159103394e-01</stageThreshold>
      <weakClassifiers>
        <_>
          <internalNodes>
            0 -1 8 -7.2054713964462280e-02</internalNodes>
          <leafValues>
            7.4626863002777100e-01 -3.9473685622215271e-01</leafValues></_>
        <_>
          <internalNodes>
            0 -1 28 3.3565309422556311e-05</internalNodes>
          <leafValues>
            5.2766662836074829e-01 -6.0647803544998169e-01</leafValues></_>
        <_>
          <internalNodes>
            0 -1 59 3.4727301681414247e-04</internalNodes>
          <leafValues>
            3.8479596376419067e-01 -8.0169194936752319e-01</leafValues></_>
        <_>
          <internalNodes>
            0 -1 56 1.5453564992640167e-04</internalNodes>
          <leafValues>
            4.7702926397323608e-01 -6.5802139043807983e-01</leafValues></_>
        <_>
          <internalNodes>
            0 -1 2 4.7639444470405579e-02</internalNodes>
          <leafValues>
            -4.5969814062118530e-01 8.4267443418502808e-01</leafValues></_>
        <_>
          <internalNodes>
            0 -1 23 2.8647620230913162e-02</internalNodes>
          <leafValues>
            -3.8398995995521545e-01 8.5622745752334595e-01</leafValues></_></weakClassifiers></_>
    <!-- stage 5 -->
    <_>
      <maxWeakCount>8</maxWeakCount>
      <stageThreshold>-5.1950477063655853e-02</stageThreshold>
      <weakClassifiers>
        <_>
          <internalNodes>
            0 -1 44 -9.8639470525085926e-04</internalNodes>
          <leafValues>
            5.5555558204650879e-01 -1.</leafValues></_>
        <_>
          <internalNodes>
            0 -1 36 -6.2427483499050140e-02</internalNodes>
          <leafValues>
            7.1122062206268311e-01 -4.3803426623344421e-01</leafValues></_>
        <_>
          <internalNodes>
            0 -1 69 3.4892826806753874e-04</internalNodes>
          <leafValues>
            5.0052756071090698e-01 -6.7775529623031616e-01</leafValues></_>
        <_>
          <internalNodes>
            0 -1 11 3.2466324046254158e-03</internalNodes>
          <leafValues>
            -4.9189755320549011e-01 6.0870200395584106e-01</leafValues></_>
        <_>
          <internalNodes>
            0 -1 17 -4.4673553202301264e-04</internalNodes>
          <leafValues>
            -6.2823086977005005e-01 4.6815380454063416e-01</leafValues></_>
        <_>
          <internalNodes>
            0 -1 7 -1.7566545307636261e-01</internalNodes>
          <leafValues>
            9.3572974205017090e-01 -3.5773742198944092e-01</leafValues></_>
        <_>
          <internalNodes>
            0 -1 58 -8.4986363071948290e-04</internalNodes>
          <leafValues>
            3.6425256729125977e-01 -9.8800909519195557e-01</leafValues></_>
        <_>
          <internalNodes>
            0 -1 48 -8.1306509673595428e-04</internalNodes>
          <leafValues>
            5.2551215887069702e-01 -5.7034081220626831e-01</leafValues></_></weakClassifiers></_>
    <!-- stage 6 -->
    <_>
      <maxWeakCount>7</maxWeakCount>
      <stageThreshold>-2.8276717662811279e-01</stageThreshold>
      <weakClassifiers>
        <_>
          <internalNodes>
            0 -1 52 -6.7075458355247974e-04</internalNodes>
          <leafValues>
            -8.1818181276321411e-01 5.4802262783050537e-01</leafValues></_>
        <_>
          <internalNodes>
            0 -1 53 2.2498320322483778e-04</internalNodes>
          <leafValues>
            4.2599937319755554e-01 -7.5889140367507935e-01</leafValues></_>
        <_>
          <internalNodes>
            0 -1 31 -1.8192628026008606e-01</internalNodes>
          <leafValues>
            8.4224021434783936e-01 -3.5098797082901001e-01</leafValues></_>
        <_>
          <internalNodes>
            0 -1 47 -1.4426291454583406e-03</internalNodes>
          <leafValues>
            4.3987768888473511e-01 -5.9998685121536255e-01</leafValues></_>
        <_>
          <internalNodes>
            0 -1 60 -9.5645710825920105e-03</internalNodes>
          <leafValues>
            -7.8697270154953003e-01 2.9689165949821472e-01</leafValues></_>
        <_>
          <internalNodes>
            0 -1 54 -7.6205295044928789e-04</internalNodes>
          <leafValues>
            -9.0479201078414917e-01 2.9643574357032776e-01</leafValues></_>
        <_>
          <internalNodes>
            0 -1 20 -2.7142223552800715e-04</internalNodes>
          <leafValues>
            -5.6480228900909424e-01 5.0013804435729980e-01</leafValues></_></weakClassifiers></_>
    <!-- stage 7 -->
    <_>
      <maxWeakCount>7</maxWeakCount>
      <stageThreshold>-9.8533761501312256e-01</stageThreshold>
      <weakClassifiers>
        <_>
          <internalNodes>
            0 -1 30 -8.8408391457051039e-04</internalNodes>
          <leafValues>
            7.8102189302444458e-01 -5.0684928894042969e-01</leafValues></_>
        <_>
          <internalNodes>
            0 -1 68 5.4347561672329903e-04</internalNodes>
          <leafValues>
            -3.7127077579498291e-01 7.5685083866119385e-01</leafValues></_>
        <_>
          <internalNodes>
            0 -1 65 -5.4363034665584564e-02</internalNodes>
          <leafValues>
            -9.3691360950469971e-01 3.5755655169487000e-01</leafValues></_>
        <_>
          <internalNodes>
            0 -1 27 8.4119839593768120e-03</internalNodes>
          <leafValues>
            -4.2900440096855164e-01 8.0391579866409302e-01</leafValues></_>
        <_>
          <internalNodes>
            0 -1 70 2.0071552135050297e-03</internalNodes>
          <leafValues>
            -4.2563441395759583e-01 8.0738115310668945e-01</leafValues></_>
        <_>
          <internalNodes>
            0 -1 57 -8.6798239499330521e-04</internalNodes>
          <leafValues>
            7.2310316562652588e-01 -3.7652608752250671e-01</leafValues></_>
        <_>
          <internalNodes>
            0 -1 1 1.7989503685384989e-03</internalNodes>
          <leafValues>
            -4.6652939915657043e-01 7.9776889085769653e-01</leafValues></_></weakClassifiers></_>
    <!-- stage 8 -->
    <_>
      <maxWeakCount>7</maxWeakCount>
      <stageThreshold>-2.9638278484344482e-01</stageThreshold>
      <weakClassifiers>
        <_>
          <internalNodes>
            0 -1 63 -8.1861363723874092e-03</internalNodes>
          <leafValues>
            7.1200001239776611e-01 -2.2352941334247589e-01</leafValues></_>
        <_>
          <internalNodes>
            0 -1 42 1.9676461815834045e-03</internalNodes>
          <leafValues>
            -2.1081031858921051e-01 1.</leafValues></_>
        <_>
          <internalNodes>
            0 -1 33 -2.3908063303679228e-03</internalNodes>
          <leafValues>
            8.0513793230056763e-01 -3.0920937657356262e-01</leafValues></_>
        <_>
          <internalNodes>
            0 -1 71 3.3761132508516312e-03</internalNodes>
          <leafValues>
            -3.2722833752632141e-01 8.5322684049606323e-01</leafValues></_>
        <_>
          <internalNodes>
            0 -1 10 2.6010597139247693e-05</internalNodes>
          <leafValues>
            -4.2370405793190002e-01 6.1845976114273071e-01</leafValues></_>
        <_>
          <internalNodes>
            0 -1 55 -1.3049936387687922e-03</internalNodes>
          <leafValues>
            8.1360775232315063e-01 -3.7778517603874207e-01</leafValues></_>
        <_>
          <internalNodes>
            0 -1 66 9.2142552603036165e-05</internalNodes>
          <leafValues>
            -4.0180933475494385e-01 7.5768679380416870e-01</leafValues></_></weakClassifiers></_>
    <!-- stage 9 -->
    <_>
      <maxWeakCount>7</maxWeakCount>
      <stageThreshold>-4.4099527597427368e-01</stageThreshold>
      <weakClassifiers>
        <_>
          <internalNodes>
            0 -1 29 -1.0008364915847778e-02</internalNodes>
          <leafValues>
            8.7155961990356445e-01 -2.4752475321292877e-01</leafValues></_>
        <_>
          <internalNodes>
            0 -1 72 7.0645869709551334e-04</internalNodes>
          <leafValues>
            -2.6126155257225037e-01 8.4425961971282959e-01</leafValues></_>
        <_>
          <internalNodes>
            0 -1 14 -2.1618743240833282e-01</internalNodes>
          <leafValues>
            -2.8139367699623108e-01 8.1056845188140869e-01</leafValues></_>
        <_>
          <internalNodes>
            0 -1 3 1.9854453857988119e-03</internalNodes>
          <leafValues>
            -2.9642349481582642e-01 9.3856346607208252e-01</leafValues></_>
        <_>
          <internalNodes>
            0 -1 5 9.4998404383659363e-03</internalNodes>
          <leafValues>
            -3.3636593818664551e-01 7.9451560974121094e-01</leafValues></_>
        <_>
          <internalNodes>
            0 -1 26 8.5955677786841989e-04</internalNodes>
          <leafValues>
            -3.9207795262336731e-01 7.3566156625747681e-01</leafValues></_>
        <_>
          <internalNodes>
            0 -1 15 4.9117811024188995e-02</internalNodes>
          <leafValues>
            3.7562057375907898e-01 -8.8456898927688599e-01</leafValues></_></weakClassifiers></_>
    <!-- stage 10 -->
    <_>
      <maxWeakCount>6</maxWeakCount>
      <stageThreshold>-4.3793493509292603e-01</stageThreshold>
      <weakClassifiers>
        <_>
          <internalNodes>
            0 -1 12 -1.6457539796829224e-01</internalNodes>
          <leafValues>
            -1.8750000000000000e-01 7.7192980051040649e-01</leafValues></_>
        <_>
          <internalNodes>
            0 -1 13 -6.5553816966712475e-04</internalNodes>
          <leafValues>
            5.9343945980072021e-01 -5.5814069509506226e-01</leafValues></_>
        <_>
          <internalNodes>
            0 -1 73 -1.6465823864564300e-04</internalNodes>
          <leafValues>
            7.2500187158584595e-01 -3.3056634664535522e-01</leafValues></_>
        <_>
          <internalNodes>
            0 -1 43 -5.8888550847768784e-04</internalNodes>
          <leafValues>
            8.0392289161682129e-01 -3.1876948475837708e-01</leafValues></_>
        <_>
          <internalNodes>
            0 -1 64 -1.0815469548106194e-02</internalNodes>
          <leafValues>
            -8.8254922628402710e-01 3.5513845086097717e-01</leafValues></_>
        <_>
          <internalNodes>
            0 -1 62 -2.6779045583680272e-04</internalNodes>
          <leafValues>
            4.7167888283729553e-01 -5.2078926563262939e-01</leafValues></_></weakClassifiers></_>
    <!-- stage 11 -->
    <_>
      <maxWeakCount>6</maxWeakCount>
      <stageThreshold>-1.2228272110223770e-01</stageThreshold>
      <weakClassifiers>
        <_>
          <internalNodes>
            0 -1 40 -5.9839226305484772e-03</internalNodes>
          <leafValues>
            8.2113820314407349e-01 -3.5632184147834778e-01</leafValues></_>
        <_>
          <internalNodes>
            0 -1 9 -2.8997835516929626e-01</internalNodes>
          <leafValues>
            -6.1088991165161133e-01 5.3440946340560913e-01</leafValues></_>
        <_>
          <internalNodes>
            0 -1 37 -5.9002880007028580e-03</internalNodes>
          <leafValues>
            8.5995465517044067e-01 -3.6316019296646118e-01</leafValues></_>
        <_>
          <internalNodes>
            0 -1 18 -4.9743098206818104e-03</internalNodes>
          <leafValues>
            6.5677952766418457e-01 -3.8978251814842224e-01</leafValues></_>
        <_>
          <internalNodes>
            0 -1 45 -4.2933449149131775e-03</internalNodes>
          <leafValues>
            9.4783741235733032e-01 -2.7047023177146912e-01</leafValues></_>
        <_>
          <internalNodes>
            0 -1 0 -5.8256648480892181e-04</internalNodes>
          <leafValues>
            7.3007673025131226e-01 -3.2351943850517273e-01</leafValues></_></weakClassifiers></_></stages>
  <features>
    <_>
      <rects>
        <_>
          0 0 15 2 -1.</_>
        <_>
          0 1 15 1 2.</_></rects>
      <tilted>0</tilted></_>
    <_>
      <rects>
        <_>
          0 1 4 12 -1.</_>
        <_>
          0 1 2 6 2.</_>
        <_>
          2 7 2 6 2.</_></rects>
      <tilted>0</tilted></_>
    <_>
      <rects>
        <_>
          0 3 18 10 -1.</_>
        <_>
          0 8 18 5 2.</_></rects>
      <tilted>0</tilted></_>
    <_>
      <rects>
        <_>
          0 6 2 11 -1.</_>
        <_>
          1 6 1 11 2.</_></rects>
      <tilted>0</tilted></_>
    <_>
      <rects>
        <_>
          0 8 8 18 -1.</_>
        <_>
          4 8 4 18 2.</_></rects>
      <tilted>0</tilted></_>
    <_>
      <rects>
        <_>
          0 8 29 4 -1.</_>
        <_>
          0 10 29 2 2.</_></rects>
      <tilted>0</tilted></_>
    <_>
      <rects>
        <_>
          0 9 1 18 -1.</_>
        <_>
          0 15 1 6 2.</_></rects>
      <tilted>0</tilted></_>
    <_>
      <rects>
        <_>
          0 9 30 14 -1.</_>
        <_>
          15 9 15 14 2.</_></rects>
      <tilted>0</tilted></_>
    <_>
      <rects>
        <_>
          0 11 29 3 -1.</_>
        <_>
          0 12 29 1 2.</_></rects>
      <tilted>0</tilted></_>
    <_>
      <rects>
        <_>
          0 12 30 9 -1.</_>
        <_>
          0 15 30 3 2.</_></rects>
      <tilted>0</tilted></_>
    <_>
      <rects>
        <_>
          0 22 2 4 -1.</_>
        <_>
          1 22 1 4 2.</_></rects>
      <tilted>0</tilted></_>
    <_>
      <rects>
        <_>
          1 7 4 14 -1.</_>
        <_>
          3 7 2 14 2.</_></rects>
      <tilted>0</tilted></_>
    <_>
      <rects>
        <_>
          1 8 15 12 -1.</_>
        <_>
          6 8 5 12 2.</_></rects>
      <tilted>0</tilted></_>
    <_>
      <rects>
        <_>
          1 22 2 6 -1.</_>
        <_>
          1 25 2 3 2.</_></rects>
      <tilted>0</tilted></_>
    <_>
      <rects>
        <_>
          2 4 22 15 -1.</_>
        <_>
          2 9 22 5 2.</_></rects>
      <tilted>0</tilted></_>
    <_>
      <rects>
        <_>
          2 8 14 18 -1.</_>
        <_>
          2 17 14 9 2.</_></rects>
      <tilted>0</tilted></_>
    <_>
      <rects>
        <_>
          2 29 18 1 -1.</_>
        <_>
          8 29 6 1 2.</_></rects>
      <tilted>0</tilted></_>
    <_>
      <rects>
        <_>
          3 21 9 2 -1.</_>
        <_>
          3 22 9 1 2.</_></rects>
      <tilted>0</tilted></_>
    <_>
      <rects>
        <_>
          3 26 7 4 -1.</_>
        <_>
          3 28 7 2 2.</_></rects>
      <tilted>0</tilted></_>
    <_>
      <rects>
        <_>
          4 12 26 3 -1.</_>
        <_>
          4 13 26 1 2.</_></rects>
      <tilted>0</tilted></_>
    <_>
      <rects>
        <_>
          4 17 2 2 -1.</_>
        <_>
          4 18 2 1 2.</_></rects>
      <tilted>0</tilted></_>
    <_>
      <rects>
        <_>
          4 24 26 6 -1.</_>
        <_>
          4 27 26 3 2.</_></rects>
      <tilted>0</tilted></_>
    <_>
      <rects>
        <_>
          4 26 17 4 -1.</_>
        <_>
          4 28 17 2 2.</_></rects>
      <tilted>0</tilted></_>
    <_>
      <rects>
        <_>
          5 1 18 7 -1.</_>
        <_>
          14 1 9 7 2.</_></rects>
      <tilted>0</tilted></_>
    <_>
      <rects>
        <_>
          5 24 6 6 -1.</_>
        <_>
          5 27 6 3 2.</_></rects>
      <tilted>0</tilted></_>
    <_>
      <rects>
        <_>
          6 8 24 3 -1.</_>
        <_>
          6 9 24 1 2.</_></rects>
      <tilted>0</tilted></_>
    <_>
      <rects>
        <_>
          6 13 8 4 -1.</_>
        <_>
          6 13 4 2 2.</_>
        <_>
          10 15 4 2 2.</_></rects>
      <tilted>0</tilted></_>
    <_>
      <rects>
        <_>
          6 22 12 8 -1.</_>
        <_>
          6 22 6 4 2.</_>
        <_>
          12 26 6 4 2.</_></rects>
      <tilted>0</tilted></_>
    <_>
      <rects>
        <_>
          6 26 1 2 -1.</_>
        <_>
          6 27 1 1 2.</_></rects>
      <tilted>0</tilted></_>
    <_>
      <rects>
        <_>
          6 26 15 4 -1.</_>
        <_>
          6 28 15 2 2.</_></rects>
      <tilted>0</tilted></_>
    <_>
      <rects>
        <_>
          6 27 14 2 -1.</_>
        <_>
          6 28 14 1 2.</_></rects>
      <tilted>0</tilted></_>
    <_>
      <rects>
        <_>
          8 10 18 10 -1.</_>
        <_>
          14 10 6 10 2.</_></rects>
      <tilted>0</tilted></_>
    <_>
      <rects>
        <_>
          9 11 9 18 -1.</_>
        <_>
          9 20 9 9 2.</_></rects>
      <tilted>0</tilted></_>
    <_>
      <rects>
        <_>
          9 14 8 3 -1.</_>
        <_>
          13 14 4 3 2.</_></rects>
      <tilted>0</tilted></_>
    <_>
      <rects>
        <_>
          10 0 12 5 -1.</_>
        <_>
          14 0 4 5 2.</_></rects>
      <tilted>0</tilted></_>
    <_>
      <rects>
        <_>
          10 1 3 3 -1.</_>
        <_>
          11 1 1 3 2.</_></rects>
      <tilted>0</tilted></_>
    <_>
      <rects>
        <_>
          11 8 12 16 -1.</_>
        <_>
          11 16 12 8 2.</_></rects>
      <tilted>0</tilted></_>
    <_>
      <rects>
        <_>
          11 24 16 4 -1.</_>
        <_>
          11 24 8 2 2.</_>
        <_>
          19 26 8 2 2.</_></rects>
      <tilted>0</tilted></_>
    <_>
      <rects>
        <_>
          11 27 4 2 -1.</_>
        <_>
          11 28 4 1 2.</_></rects>
      <tilted>0</tilted></_>
    <_>
      <rects>
        <_>
          12 3 18 3 -1.</_>
        <_>
          12 4 18 1 2.</_></rects>
      <tilted>0</tilted></_>
    <_>
      <rects>
        <_>
          12 26 13 4 -1.</_>
        <_>
          12 28 13 2 2.</_></rects>
      <tilted>0</tilted></_>
    <_>
      <rects>
        <_>
          13 0 3 10 -1.</_>
        <_>
          14 0 1 10 2.</_></rects>
      <tilted>0</tilted></_>
    <_>
      <rects>
        <_>
          13 12 16 2 -1.</_>
        <_>
          13 12 8 1 2.</_>
        <_>
          21 13 8 1 2.</_></rects>
      <tilted>0</tilted></_>
    <_>
      <rects>
        <_>
          14 2 4 4 -1.</_>
        <_>
          14 4 4 2 2.</_></rects>
      <tilted>0</tilted></_>
    <_>
      <rects>
        <_>
          15 5 3 1 -1.</_>
        <_>
          16 5 1 1 2.</_></rects>
      <tilted>0</tilted></_>
    <_>
      <rects>
        <_>
          15 10 6 4 -1.</_>
        <_>
          15 10 3 2 2.</_>
        <_>
          18 12 3 2 2.</_></rects>
      <tilted>0</tilted></_>
    <_>
      <rects>
        <_>
          15 19 6 2 -1.</_>
        <_>
          15 20 6 1 2.</_></rects>
      <tilted>0</tilted></_>
    <_>
      <rects>
        <_>
          15 26 8 4 -1.</_>
        <_>
          15 28 8 2 2.</_></rects>
      <tilted>0</tilted></_>
    <_>
      <rects>
        <_>
          15 28 9 2 -1.</_>
        <_>
          15 29 9 1 2.</_></rects>
      <tilted>0</tilted></_>
    <_>
      <rects>
        <_>
          16 22 2 2 -1.</_>
        <_>
          16 22 1 1 2.</_>
        <_>
          17 23 1 1 2.</_></rects>
      <tilted>0</tilted></_>
    <_>
      <rects>
        <_>
          17 22 11 8 -1.</_>
        <_>
          17 26 11 4 2.</_></rects>
      <tilted>0</tilted></_>
    <_>
      <rects>
        <_>
          18 1 12 14 -1.</_>
        <_>
          18 1 6 7 2.</_>
        <_>
          24 8 6 7 2.</_></rects>
      <tilted>0</tilted></_>
    <_>
      <rects>
        <_>
          18 2 2 2 -1.</_>
        <_>
          19 2 1 2 2.</_></rects>
      <tilted>0</tilted></_>
    <_>
      <rects>
        <_>
          18 3 2 1 -1.</_>
        <_>
          19 3 1 1 2.</_></rects>
      <tilted>0</tilted></_>
    <_>
      <rects>
        <_>
          18 3 4 1 -1.</_>
        <_>
          20 3 2 1 2.</_></rects>
      <tilted>0</tilted></_>
    <_>
      <rects>
        <_>
          18 7 4 4 -1.</_>
        <_>
          18 7 2 2 2.</_>
        <_>
          20 9 2 2 2.</_></rects>
      <tilted>0</tilted></_>
    <_>
      <rects>
        <_>
          18 20 2 2 -1.</_>
        <_>
          18 20 1 1 2.</_>
        <_>
          19 21 1 1 2.</_></rects>
      <tilted>0</tilted></_>
    <_>
      <rects>
        <_>
          18 24 12 2 -1.</_>
        <_>
          18 25 12 1 2.</_></rects>
      <tilted>0</tilted></_>
    <_>
      <rects>
        <_>
          19 4 3 1 -1.</_>
        <_>
          20 4 1 1 2.</_></rects>
      <tilted>0</tilted></_>
    <_>
      <rects>
        <_>
          19 4 2 2 -1.</_>
        <_>
          19 4 1 1 2.</_>
        <_>
          20 5 1 1 2.</_></rects>
      <tilted>0</tilted></_>
    <_>
      <rects>
        <_>
          19 5 9 1 -1.</_>
        <_>
          22 5 3 1 2.</_></rects>
      <tilted>0</tilted></_>
    <_>
      <rects>
        <_>
          19 14 2 6 -1.</_>
        <_>
          20 14 1 6 2.</_></rects>
      <tilted>0</tilted></_>
    <_>
      <rects>
        <_>
          19 28 3 2 -1.</_>
        <_>
          19 29 3 1 2.</_></rects>
      <tilted>0</tilted></_>
    <_>
      <rects>
        <_>
          20 1 10 12 -1.</_>
        <_>
          20 1 5 6 2.</_>
        <_>
          25 7 5 6 2.</_></rects>
      <tilted>0</tilted></_>
    <_>
      <rects>
        <_>
          21 4 5 10 -1.</_>
        <_>
          21 9 5 5 2.</_></rects>
      <tilted>0</tilted></_>
    <_>
      <rects>
        <_>
          21 23 9 5 -1.</_>
        <_>
          24 23 3 5 2.</_></rects>
      <tilted>0</tilted></_>
    <_>
      <rects>
        <_>
          22 0 4 2 -1.</_>
        <_>
          22 0 2 1 2.</_>
        <_>
          24 1 2 1 2.</_></rects>
      <tilted>0</tilted></_>
    <_>
      <rects>
        <_>
          22 22 1 8 -1.</_>
        <_>
          22 26 1 4 2.</_></rects>
      <tilted>0</tilted></_>
    <_>
      <rects>
        <_>
          22 25 8 4 -1.</_>
        <_>
          22 25 4 2 2.</_>
        <_>
          26 27 4 2 2.</_></rects>
      <tilted>0</tilted></_>
    <_>
      <rects>
        <_>
          22 25 7 2 -1.</_>
        <_>
          22 26 7 1 2.</_></rects>
      <tilted>0</tilted></_>
    <_>
      <rects>
        <_>
          24 12 6 4 -1.</_>
        <_>
          24 12 3 2 2.</_>
        <_>
          27 14 3 2 2.</_></rects>
      <tilted>0</tilted></_>
    <_>
      <rects>
        <_>
          24 16 6 8 -1.</_>
        <_>
          24 16 3 4 2.</_>
        <_>
          27 20 3 4 2.</_></rects>
      <tilted>0</tilted></_>
    <_>
      <rects>
        <_>
          26 18 4 2 -1.</_>
        <_>
          28 18 2 2 2.</_></rects>
      <tilted>0</tilted></_>
    <_>
      <rects>
        <_>
          27 13 2 4 -1.</_>
        <_>
          27 13 1 2 2.</_>
        <_>
          28 15 1 2 2.</_></rects>
      <tilted>0</tilted></_></features></cascade>
</opencv_storage>
